<?xml version="1.0"?>
<opencv_storage>
<cascade>
  <stageType>BOOST</stageType>
  <featureType>HAAR</featureType>
  <height>20</height>
  <width>20</width>
  <stageParams>
    <boostType>GAB</boostType>
    <minHitRate>9.9900001287460327e-01</minHitRate>
    <maxFalseAlarm>5.0000000745058060e-02</maxFalseAlarm>
    <weightTrimRate>9.4999999999999996e-01</weightTrimRate>
    <maxDepth>1</maxDepth>
    <maxWeakCount>100</maxWeakCount></stageParams>
  <featureParams>
    <maxCatCount>0</maxCatCount>
    <featSize>1</featSize>
    <mode>ALL</mode></featureParams>
  <stageNum>3</stageNum>
  <stages>
    <!-- stage 0 -->
    <_>
      <maxWeakCount>5</maxWeakCount>
      <stageThreshold>4.3845486640930176e-01</stageThreshold>
      <weakClassifiers>
        <_>
          <internalNodes>
            0 -1 13 -2.1954032126814127e-03</internalNodes>
          <leafValues>
            8.1818181276321411e-01 -6.7213112115859985e-01</leafValues></_>
        <_>
          <internalNodes>
            0 -1 17 -7.5287735089659691e-03</internalNodes>
          <leafValues>
            6.2504595518112183e-01 -9.1828411817550659e-01</leafValues></_>
        <_>
          <internalNodes>
            0 -1 14 1.1429335922002792e-02</internalNodes>
          <leafValues>
            -9.1022962331771851e-01 5.4364377260208130e-01</leafValues></_>
        <_>
          <internalNodes>
            0 -1 4 -5.2487324923276901e-02</internalNodes>
          <leafValues>
            9.8365247249603271e-01 -5.7927978038787842e-01</leafValues></_>
        <_>
          <internalNodes>
            0 -1 12 -1.0731695219874382e-02</internalNodes>
          <leafValues>
            5.7419317960739136e-01 -9.2046755552291870e-01</leafValues></_></weakClassifiers></_>
    <!-- stage 1 -->
    <_>
      <maxWeakCount>7</maxWeakCount>
      <stageThreshold>3.0985733866691589e-01</stageThreshold>
      <weakClassifiers>
        <_>
          <internalNodes>
            0 -1 5 4.3015712872147560e-03</internalNodes>
          <leafValues>
            -5.9472817182540894e-01 9.1857504844665527e-01</leafValues></_>
        <_>
          <internalNodes>
            0 -1 10 2.3958797100931406e-03</internalNodes>
          <leafValues>
            -6.0062915086746216e-01 8.5157281160354614e-01</leafValues></_>
        <_>
          <internalNodes>
            0 -1 11 -6.1645405367016792e-03</internalNodes>
          <leafValues>
            9.4672262668609619e-01 -4.1330060362815857e-01</leafValues></_>
        <_>
          <internalNodes>
            0 -1 9 -6.2487628310918808e-03</internalNodes>
          <leafValues>
            9.7459626197814941e-01 -4.1829144954681396e-01</leafValues></_>
        <_>
          <internalNodes>
            0 -1 7 -3.7172380834817886e-03</internalNodes>
          <leafValues>
            9.3051820993423462e-01 -4.2547950148582458e-01</leafValues></_>
        <_>
          <internalNodes>
            0 -1 0 1.1973449960350990e-02</internalNodes>
          <leafValues>
            -9.2137610912322998e-01 5.4206055402755737e-01</leafValues></_>
        <_>
          <internalNodes>
            0 -1 8 2.5751017034053802e-02</internalNodes>
          <leafValues>
            -4.9579530954360962e-01 9.8077994585037231e-01</leafValues></_></weakClassifiers></_>
    <!-- stage 2 -->
    <_>
      <maxWeakCount>7</maxWeakCount>
      <stageThreshold>-1.3303351402282715e+00</stageThreshold>
      <weakClassifiers>
        <_>
          <internalNodes>
            0 -1 6 5.0585060380399227e-03</internalNodes>
          <leafValues>
            -5.5398231744766235e-01 7.1954023838043213e-01</leafValues></_>
        <_>
          <internalNodes>
            0 -1 16 2.4439323693513870e-02</internalNodes>
          <leafValues>
            -3.7537440657615662e-01 9.3989825248718262e-01</leafValues></_>
        <_>
          <internalNodes>
            0 -1 15 1.2015307322144508e-02</internalNodes>
          <leafValues>
            -5.2263051271438599e-01 9.1277176141738892e-01</leafValues></_>
        <_>
          <internalNodes>
            0 -1 1 3.5828714317176491e-05</internalNodes>
          <leafValues>
            5.4749602079391479e-01 -1.</leafValues></_>
        <_>
          <internalNodes>
            0 -1 1 -3.7712816265411675e-05</internalNodes>
          <leafValues>
            -9.2952740192413330e-01 5.7007604837417603e-01</leafValues></_>
        <_>
          <internalNodes>
            0 -1 2 -2.4925319477915764e-02</internalNodes>
          <leafValues>
            8.7329953908920288e-01 -5.2624893188476562e-01</leafValues></_>
        <_>
          <internalNodes>
            0 -1 3 1.9496861845254898e-02</internalNodes>
          <leafValues>
            -4.6967104077339172e-01 9.3355911970138550e-01</leafValues></_></weakClassifiers></_></stages>
  <features>
    <_>
      <rects>
        <_>
          0 0 12 16 -1.</_>
        <_>
          3 0 6 16 2.</_></rects>
      <tilted>0</tilted></_>
    <_>
      <rects>
        <_>
          0 17 1 3 -1.</_>
        <_>
          0 18 1 1 3.</_></rects>
      <tilted>0</tilted></_>
    <_>
      <rects>
        <_>
          2 8 12 2 -1.</_>
        <_>
          2 8 6 1 2.</_>
        <_>
          8 9 6 1 2.</_></rects>
      <tilted>0</tilted></_>
    <_>
      <rects>
        <_>
          4 9 3 3 -1.</_>
        <_>
          4 10 3 1 3.</_></rects>
      <tilted>0</tilted></_>
    <_>
      <rects>
        <_>
          6 3 13 3 -1.</_>
        <_>
          5 4 13 1 3.</_></rects>
      <tilted>1</tilted></_>
    <_>
      <rects>
        <_>
          6 8 3 1 -1.</_>
        <_>
          7 8 1 1 3.</_></rects>
      <tilted>0</tilted></_>
    <_>
      <rects>
        <_>
          7 6 3 1 -1.</_>
        <_>
          8 6 1 1 3.</_></rects>
      <tilted>0</tilted></_>
    <_>
      <rects>
        <_>
          7 11 2 2 -1.</_>
        <_>
          7 11 1 1 2.</_>
        <_>
          8 12 1 1 2.</_></rects>
      <tilted>0</tilted></_>
    <_>
      <rects>
        <_>
          7 12 3 3 -1.</_>
        <_>
          8 13 1 1 9.</_></rects>
      <tilted>0</tilted></_>
    <_>
      <rects>
        <_>
          8 14 3 1 -1.</_>
        <_>
          9 14 1 1 3.</_></rects>
      <tilted>0</tilted></_>
    <_>
      <rects>
        <_>
          9 10 1 2 -1.</_>
        <_>
          9 11 1 1 2.</_></rects>
      <tilted>0</tilted></_>
    <_>
      <rects>
        <_>
          9 13 3 1 -1.</_>
        <_>
          10 13 1 1 3.</_></rects>
      <tilted>0</tilted></_>
    <_>
      <rects>
        <_>
          10 0 10 19 -1.</_>
        <_>
          15 0 5 19 2.</_></rects>
      <tilted>0</tilted></_>
    <_>
      <rects>
        <_>
          10 8 1 2 -1.</_>
        <_>
          10 9 1 1 2.</_></rects>
      <tilted>0</tilted></_>
    <_>
      <rects>
        <_>
          13 0 7 6 -1.</_>
        <_>
          13 3 7 3 2.</_></rects>
      <tilted>0</tilted></_>
    <_>
      <rects>
        <_>
          13 8 2 3 -1.</_>
        <_>
          13 9 2 1 3.</_></rects>
      <tilted>0</tilted></_>
    <_>
      <rects>
        <_>
          13 9 5 3 -1.</_>
        <_>
          13 10 5 1 3.</_></rects>
      <tilted>0</tilted></_>
    <_>
      <rects>
        <_>
          15 14 5 6 -1.</_>
        <_>
          15 17 5 3 2.</_></rects>
      <tilted>0</tilted></_></features></cascade>
</opencv_storage>
